net
{
     node_size = (0 0);
     name = "New BN";
     tree = "(C1,C2,C3,C4,C5,C6,C7,C8,C9,C10,C11,C12,C13,C14,C15,C16,C17,C18,C19,C20,C21,C22,C23,C24,C25,C26,C27,C28,C29,C30,C31,C32,C33,C34,C35,C36,C37,C38,C39,C40,C41,C42,C43,C44,C45,C46,C47,C48,C49,C50,C51,C52,C53,C54,C55)";
     UnBBayes_Color_Probabilistic_Description = "-256";
     UnBBayes_Color_Probabilistic_Explanation = "-16711936";
}

node likelihood_of_attack
{
     label = "C1";
     position = (510 1);
     states = ("Low" "Medium" "High");
}

node typical_severity
{
     label = "C2";
     position = (771 4);
     states = ("Low" "Medium" "High" "Very High");
}

node parametar_injection
{
     label = "C4";
     position = (0 152);
     states = ("yes" "no");
}

node argument_injection
{
     label = "C5";
     position = (159 143);
     states = ("yes" "no");
}

node formal_string_injection
{
     label = "C7";
     position = (296 144);
     states = ("yes" "no");
}

node identity_spoofing
{
     label = "C11";
     position = (1302 549);
     states = ("yes" "no");
}

node pharming
{
     label = "C12";
     position = (456 141);
     states = ("yes" "no");
}

node phishing
{
     label = "C13";
     position = (561 158);
     states = ("yes" "no");
}

node dns_rebinding
{
     label = "C18";
     position = (682 152);
     states = ("yes" "no");
}

node token_impersonaation
{
     label = "C22";
     position = (813 164);
     states = ("yes" "no");
}

node terrestrial_jamming
{
     label = "C25";
     position = (190 268);
     states = ("yes" "no");
}

node resource_location_spoofing
{
     label = "C27";
     position = (979 165);
     states = ("yes" "no");
}

node action_spoofing
{
     label = "C30";
     position = (383 267);
     states = ("yes" "no");
}

node clickjacking
{
     label = "C31";
     position = (1197 166);
     states = ("yes" "no");
}

node task_impersonation
{
     label = "C33";
     position = (535 269);
     states = ("yes" "no");
}

node software_integrity_attack
{
     label = "C35";
     position = (0 266);
     states = ("yes" "no");
}

node malicius_human_behavior
{
     label = "C37";
     position = (704 270);
     states = ("yes" "no");
}

node influence_perception
{
     label = "C38";
     position = (920 270);
     states = ("yes" "no");
}

node route_disabiling
{
     label = "C43";
     position = (1104 273);
     states = ("yes" "no");
}

node blockage
{
     label = "C44";
     position = (1330 187);
     states = ("yes" "no");
}

node pretexting
{
     label = "C46";
     position = (1260 271);
     states = ("yes" "no");
}

node authentication
{
     label = "C48";
     position = (117 399);
     states = ("correct" "incorrect");
}

node password_policy
{
     label = "C49";
     position = (382 495);
     states = ("strong" "medium" "weak");
}

node authorization
{
     label = "C50";
     position = (667 522);
     states = ("high" "medium" "low");
}

node server_version
{
     label = "C51";
     position = (963 476);
     states = ("latest" "old" "very old");
}

node vaidation
{
     label = "C52";
     position = (1123 391);
     states = ("correct" "incorrect");
}

node suspsuspitious_mail
{
     label = "C53";
     position = (361 474);
     states = ("no " "yes");
}

node link_clicked
{
     label = "C54";
     position = (482 609);
     states = ("no" "yes");
}

node download_free_content
{
     label = "C55";
     position = (812 511);
     states = ("no" "yes");
}

node skills_required
{
     label = "C1";
     position = (945 6);
     states = ("low" "medium" "high");
}

potential (likelihood_of_attack)
{
 data = ( 0.3333 0.3334 0.3333 );
}

potential (typical_severity)
{
 data = ( 0.2 0.4 0.3 0.1 );
}

potential (parametar_injection | vaidation password_policy authentication typical_severity likelihood_of_attack)
{
 data = (((((( 0.1 0.8999999 )
( 0.2 0.8 )
( 0.3 0.7 ))
(( 0.2 0.8 )
( 0.3 0.7 )
( 0.4 0.6 ))
(( 0.3 0.7 )
( 0.4 0.6 )
( 0.5 0.5 ))
(( 0.5 0.5 )
( 0.6 0.4 )
( 0.7 0.3 )))
((( 0.2 0.8 )
( 0.3 0.7 )
( 0.4 0.6 ))
(( 0.3 0.7 )
( 0.4 0.6 )
( 0.5 0.5 ))
(( 0.4 0.6 )
( 0.44999996 0.55 )
( 0.5 0.5 ))
(( 0.52 0.48 )
( 0.55 0.44999996 )
( 0.6 0.4 ))))
(((( 0.15 0.8500001 )
( 0.25 0.75 )
( 0.35 0.65 ))
(( 0.25 0.75 )
( 0.35 0.65 )
( 0.44999996 0.55 ))
(( 0.35 0.65 )
( 0.44999996 0.55 )
( 0.55 0.44999996 ))
(( 0.6 0.4 )
( 0.65 0.35 )
( 0.75 0.25 )))
((( 0.25 0.75 )
( 0.35 0.65 )
( 0.4 0.6 ))
(( 0.35 0.65 )
( 0.44999996 0.55 )
( 0.51 0.49 ))
(( 0.44999996 0.55 )
( 0.5 0.5 )
( 0.55 0.44999996 ))
(( 0.57 0.42999998 )
( 0.6 0.4 )
( 0.62 0.38 ))))
(((( 0.2 0.8 )
( 0.3 0.7 )
( 0.4 0.6 ))
(( 0.3 0.7 )
( 0.4 0.6 )
( 0.5 0.5 ))
(( 0.5 0.5 )
( 0.52 0.48 )
( 0.6 0.4 ))
(( 0.62 0.38 )
( 0.7 0.3 )
( 0.75 0.25 )))
((( 0.3 0.7 )
( 0.4 0.6 )
( 0.44999996 0.55 ))
(( 0.4 0.6 )
( 0.5 0.5 )
( 0.55 0.44999996 ))
(( 0.62 0.38 )
( 0.65 0.35 )
( 0.7 0.3 ))
(( 0.65 0.35 )
( 0.75 0.25 )
( 0.8500001 0.15 )))))
((((( 0.2 0.8 )
( 0.3 0.7 )
( 0.4 0.6 ))
(( 0.3 0.7 )
( 0.4 0.6 )
( 0.5 0.5 ))
(( 0.4 0.6 )
( 0.5 0.5 )
( 0.6 0.4 ))
(( 0.6 0.4 )
( 0.7 0.3 )
( 0.8 0.2 )))
((( 0.3 0.7 )
( 0.4 0.6 )
( 0.5 0.5 ))
(( 0.4 0.6 )
( 0.5 0.5 )
( 0.6 0.4 ))
(( 0.5 0.5 )
( 0.55 0.45 )
( 0.59 0.41 ))
(( 0.55 0.45 )
( 0.6 0.4 )
( 0.65 0.35 ))))
(((( 0.2 0.8 )
( 0.3 0.7 )
( 0.4 0.6 ))
(( 0.3 0.7 )
( 0.4 0.6 )
( 0.5 0.5 ))
(( 0.4 0.6 )
( 0.5 0.5 )
( 0.59 0.41 ))
(( 0.65 0.35 )
( 0.75 0.25 )
( 0.8 0.2 )))
((( 0.3 0.7 )
( 0.4 0.6 )
( 0.5 0.5 ))
(( 0.4 0.6 )
( 0.5 0.5 )
( 0.55 0.45 ))
(( 0.5 0.5 )
( 0.55 0.45 )
( 0.6 0.4 ))
(( 0.6 0.4 )
( 0.65 0.35 )
( 0.69 0.31 ))))
(((( 0.3 0.7 )
( 0.4 0.6 )
( 0.5 0.5 ))
(( 0.4 0.6 )
( 0.5 0.5 )
( 0.6 0.4 ))
(( 0.5 0.5 )
( 0.55 0.45 )
( 0.65 0.35 ))
(( 0.65 0.35 )
( 0.75 0.25 )
( 0.8 0.2 )))
((( 0.35 0.65 )
( 0.45 0.55 )
( 0.55 0.45 ))
(( 0.45 0.55 )
( 0.55 0.45 )
( 0.6 0.4 ))
(( 0.65 0.35 )
( 0.7 0.3 )
( 0.75 0.25 ))
(( 0.7 0.3 )
( 0.9 0.1 )
( 0.95 0.05 ))))));
}

potential (argument_injection | vaidation password_policy authentication typical_severity likelihood_of_attack)
{
 data = (((((( 0.1 0.9 )
( 0.15 0.85 )
( 0.3 0.7 ))
(( 0.2 0.8 )
( 0.3 0.7 )
( 0.4 0.6 ))
(( 0.3 0.7 )
( 0.4 0.6 )
( 0.5 0.5 ))
(( 0.5 0.5 )
( 0.6 0.4 )
( 0.75 0.25 )))
((( 0.2 0.8 )
( 0.3 0.7 )
( 0.4 0.6 ))
(( 0.33 0.67 )
( 0.4 0.6 )
( 0.5 0.5 ))
(( 0.4 0.6 )
( 0.48 0.52 )
( 0.5 0.5 ))
(( 0.52 0.48 )
( 0.55 0.45 )
( 0.8 0.2 ))))
(((( 0.15 0.85 )
( 0.25 0.75 )
( 0.35 0.65 ))
(( 0.25 0.75 )
( 0.35 0.65 )
( 0.49 0.51 ))
(( 0.35 0.65 )
( 0.45 0.55 )
( 0.55 0.45 ))
(( 0.6 0.4 )
( 0.65 0.35 )
( 0.75 0.25 )))
((( 0.25 0.75 )
( 0.35 0.65 )
( 0.4 0.6 ))
(( 0.4 0.6 )
( 0.45 0.55 )
( 0.51 0.49 ))
(( 0.45 0.55 )
( 0.5 0.5 )
( 0.55 0.45 ))
(( 0.57 0.43 )
( 0.6 0.4 )
( 0.62 0.38 ))))
(((( 0.2 0.8 )
( 0.3 0.7 )
( 0.4 0.6 ))
(( 0.3 0.7 )
( 0.4 0.6 )
( 0.5 0.5 ))
(( 0.5 0.5 )
( 0.52 0.48 )
( 0.6 0.4 ))
(( 0.62 0.38 )
( 0.7 0.3 )
( 0.75 0.25 )))
((( 0.3 0.7 )
( 0.4 0.6 )
( 0.45 0.55 ))
(( 0.4 0.6 )
( 0.5 0.5 )
( 0.55 0.45 ))
(( 0.62 0.38 )
( 0.65 0.35 )
( 0.7 0.3 ))
(( 0.65 0.35 )
( 0.75 0.25 )
( 0.85 0.15 )))))
((((( 0.2 0.8 )
( 0.3 0.7 )
( 0.4 0.6 ))
(( 0.3 0.7 )
( 0.4 0.6 )
( 0.5 0.5 ))
(( 0.4 0.6 )
( 0.5 0.5 )
( 0.6 0.4 ))
(( 0.6 0.4 )
( 0.7 0.3 )
( 0.8 0.2 )))
((( 0.3 0.7 )
( 0.4 0.6 )
( 0.5 0.5 ))
(( 0.4 0.6 )
( 0.5 0.5 )
( 0.6 0.4 ))
(( 0.5 0.5 )
( 0.55 0.45 )
( 0.59 0.41 ))
(( 0.55 0.45 )
( 0.6 0.4 )
( 0.65 0.35 ))))
(((( 0.2 0.8 )
( 0.3 0.7 )
( 0.4 0.6 ))
(( 0.3 0.7 )
( 0.4 0.6 )
( 0.5 0.5 ))
(( 0.4 0.6 )
( 0.5 0.5 )
( 0.59 0.41 ))
(( 0.65 0.35 )
( 0.75 0.25 )
( 0.8 0.2 )))
((( 0.3 0.7 )
( 0.4 0.6 )
( 0.5 0.5 ))
(( 0.4 0.6 )
( 0.5 0.5 )
( 0.55 0.45 ))
(( 0.51 0.49 )
( 0.55 0.45 )
( 0.6 0.4 ))
(( 0.6 0.4 )
( 0.65 0.35 )
( 0.69 0.31 ))))
(((( 0.3 0.7 )
( 0.4 0.6 )
( 0.5 0.5 ))
(( 0.4 0.6 )
( 0.5 0.5 )
( 0.6 0.4 ))
(( 0.5 0.5 )
( 0.55 0.45 )
( 0.65 0.35 ))
(( 0.65 0.35 )
( 0.75 0.25 )
( 0.8 0.2 )))
((( 0.35 0.65 )
( 0.4 0.6 )
( 0.55 0.45 ))
(( 0.45 0.55 )
( 0.55 0.45 )
( 0.6 0.4 ))
(( 0.65 0.35 )
( 0.7 0.3 )
( 0.8 0.2 ))
(( 0.7 0.3 )
( 0.9 0.1 )
( 0.95 0.05 ))))));
}

potential (formal_string_injection | server_version authorization skills_required typical_severity likelihood_of_attack)
{
 data = (((((( 0.15 0.8500001 )
( 0.25 0.75 )
( 0.35 0.65 ))
(( 0.25 0.75 )
( 0.5 0.5 )
( 0.65 0.35 ))
(( 0.35 0.65 )
( 0.65 0.35 )
( 0.75 0.25 ))
(( 0.8 0.2 )
( 0.8500001 0.15 )
( 0.8999999 0.1 )))
((( 0.2 0.8 )
( 0.3 0.7 )
( 0.4 0.6 ))
(( 0.3 0.7 )
( 0.55 0.44999996 )
( 0.68 0.32 ))
(( 0.4 0.6 )
( 0.67 0.33 )
( 0.7 0.3 ))
(( 0.82 0.18 )
( 0.87000006 0.13 )
( 0.91 0.09 )))
((( 0.3 0.7 )
( 0.35 0.65 )
( 0.42 0.58 ))
(( 0.35 0.65 )
( 0.65 0.35 )
( 0.7 0.3 ))
(( 0.44999996 0.55 )
( 0.7 0.3 )
( 0.73 0.27 ))
(( 0.8500001 0.15 )
( 0.89000005 0.10999999 )
( 0.94 0.06 ))))
(((( 0.2 0.8 )
( 0.3 0.7 )
( 0.4 0.6 ))
(( 0.3 0.7 )
( 0.55 0.45 )
( 0.7 0.3 ))
(( 0.4 0.6 )
( 0.66 0.34 )
( 0.76 0.24 ))
(( 0.68 0.32 )
( 0.75 0.25 )
( 0.8 0.2 )))
((( 0.25 0.75 )
( 0.35 0.65 )
( 0.45 0.55 ))
(( 0.35 0.65 )
( 0.5 0.5 )
( 0.6 0.4 ))
(( 0.45 0.55 )
( 0.6 0.4 )
( 0.7 0.3 ))
(( 0.7 0.3 )
( 0.75 0.25 )
( 0.8 0.2 )))
((( 0.35 0.65 )
( 0.4 0.6 )
( 0.45 0.55 ))
(( 0.4 0.6 )
( 0.5 0.5 )
( 0.6 0.4 ))
(( 0.5 0.5 )
( 0.6 0.4 )
( 0.7 0.3 ))
(( 0.7 0.3 )
( 0.8 0.2 )
( 0.9 0.1 ))))
(((( 0.25 0.75 )
( 0.35 0.65 )
( 0.45 0.55 ))
(( 0.35 0.65 )
( 0.4 0.6 )
( 0.45 0.55 ))
(( 0.43 0.57 )
( 0.69 0.31 )
( 0.79 0.21 ))
(( 0.7 0.3 )
( 0.78 0.22 )
( 0.83 0.17 )))
((( 0.3 0.7 )
( 0.39 0.61 )
( 0.5 0.5 ))
(( 0.4 0.6 )
( 0.55 0.45 )
( 0.63 0.37 ))
(( 0.5 0.5 )
( 0.55 0.45 )
( 0.6 0.4 ))
(( 0.72 0.28 )
( 0.79 0.21 )
( 0.84 0.16 )))
((( 0.4 0.6 )
( 0.45 0.55 )
( 0.5 0.5 ))
(( 0.45 0.55 )
( 0.55 0.45 )
( 0.65 0.35 ))
(( 0.55 0.45 )
( 0.65 0.35 )
( 0.75 0.25 ))
(( 0.75 0.25 )
( 0.85 0.15 )
( 0.96 0.04 )))))
((((( 0.2 0.8 )
( 0.3 0.7 )
( 0.4 0.6 ))
(( 0.3 0.7 )
( 0.4 0.6 )
( 0.5 0.5 ))
(( 0.4 0.6 )
( 0.45 0.55 )
( 0.55 0.45 ))
(( 0.45 0.55 )
( 0.5 0.5 )
( 0.55 0.45 )))
((( 0.25 0.75 )
( 0.33 0.67 )
( 0.43 0.57 ))
(( 0.35 0.65 )
( 0.4 0.6 )
( 0.45 0.55 ))
(( 0.45 0.55 )
( 0.5 0.5 )
( 0.55 0.45 ))
(( 0.5 0.5 )
( 0.65 0.35 )
( 0.91 0.09 )))
((( 0.35 0.65 )
( 0.4 0.6 )
( 0.45 0.55 ))
(( 0.4 0.6 )
( 0.45 0.55 )
( 0.5 0.5 ))
(( 0.5 0.5 )
( 0.55 0.45 )
( 0.6 0.4 ))
(( 0.6 0.4 )
( 0.7 0.3 )
( 0.8 0.2 ))))
(((( 0.25 0.75 )
( 0.35 0.65 )
( 0.45 0.55 ))
(( 0.35 0.65 )
( 0.45 0.55 )
( 0.55 0.45 ))
(( 0.45 0.55 )
( 0.6 0.4 )
( 0.7 0.3 ))
(( 0.7 0.3 )
( 0.78 0.22 )
( 0.82 0.18 )))
((( 0.3 0.7 )
( 0.4 0.6 )
( 0.5 0.5 ))
(( 0.4 0.6 )
( 0.55 0.45 )
( 0.63 0.37 ))
(( 0.5 0.5 )
( 0.55 0.45 )
( 0.74 0.26 ))
(( 0.73 0.27 )
( 0.79 0.21 )
( 0.84 0.16 )))
((( 0.45 0.55 )
( 0.5 0.5 )
( 0.55 0.45 ))
(( 0.45 0.55 )
( 0.53 0.47 )
( 0.63 0.37 ))
(( 0.55 0.45 )
( 0.65 0.35 )
( 0.75 0.25 ))
(( 0.73 0.27 )
( 0.85 0.15 )
( 0.92 0.08 ))))
(((( 0.3 0.7 )
( 0.4 0.6 )
( 0.5 0.5 ))
(( 0.4 0.6 )
( 0.45 0.55 )
( 0.55 0.45 ))
(( 0.45 0.55 )
( 0.73 0.27 )
( 0.86 0.14 ))
(( 0.74 0.26 )
( 0.82 0.18 )
( 0.88 0.12 )))
((( 0.4 0.6 )
( 0.43 0.57 )
( 0.48 0.52 ))
(( 0.43 0.57 )
( 0.48 0.52 )
( 0.56 0.44 ))
(( 0.54 0.46 )
( 0.59 0.41 )
( 0.63 0.37 ))
(( 0.75 0.25 )
( 0.83 0.17 )
( 0.89 0.11 )))
((( 0.45 0.55 )
( 0.5 0.5 )
( 0.55 0.45 ))
(( 0.5 0.5 )
( 0.58 0.42 )
( 0.63 0.37 ))
(( 0.59 0.41 )
( 0.7 0.3 )
( 0.8 0.2 ))
(( 0.8 0.2 )
( 0.89 0.11 )
( 0.98 0.02 )))))
((((( 0.25 0.75 )
( 0.35 0.65 )
( 0.45 0.55 ))
(( 0.35 0.65 )
( 0.45 0.55 )
( 0.55 0.45 ))
(( 0.45 0.55 )
( 0.5 0.5 )
( 0.56 0.44 ))
(( 0.5 0.5 )
( 0.54 0.46 )
( 0.6 0.4 )))
((( 0.3 0.7 )
( 0.35 0.65 )
( 0.45 0.55 ))
(( 0.4 0.6 )
( 0.45 0.55 )
( 0.5 0.5 ))
(( 0.5 0.5 )
( 0.55 0.45 )
( 0.6 0.4 ))
(( 0.53 0.47 )
( 0.67 0.33 )
( 0.85 0.15 )))
((( 0.4 0.6 )
( 0.45 0.55 )
( 0.5 0.5 ))
(( 0.45 0.55 )
( 0.5 0.5 )
( 0.55 0.45 ))
(( 0.55 0.45 )
( 0.6 0.4 )
( 0.65 0.35 ))
(( 0.65 0.35 )
( 0.72 0.28 )
( 0.85 0.15 ))))
(((( 0.3 0.7 )
( 0.4 0.6 )
( 0.5 0.5 ))
(( 0.4 0.6 )
( 0.5 0.5 )
( 0.6 0.4 ))
(( 0.5 0.5 )
( 0.55 0.45 )
( 0.6 0.4 ))
(( 0.65 0.35 )
( 0.7 0.3 )
( 0.85 0.15 )))
((( 0.35 0.65 )
( 0.45 0.55 )
( 0.55 0.45 ))
(( 0.45 0.55 )
( 0.55 0.45 )
( 0.65 0.35 ))
(( 0.55 0.45 )
( 0.6 0.4 )
( 0.78 0.22 ))
(( 0.77 0.23 )
( 0.83 0.17 )
( 0.89 0.11 )))
((( 0.5 0.5 )
( 0.55 0.45 )
( 0.65 0.35 ))
(( 0.55 0.45 )
( 0.6 0.4 )
( 0.65 0.35 ))
(( 0.6 0.4 )
( 0.7 0.3 )
( 0.8 0.2 ))
(( 0.75 0.25 )
( 0.9 0.1 )
( 0.95 0.05 ))))
(((( 0.35 0.65 )
( 0.45 0.55 )
( 0.55 0.45 ))
(( 0.45 0.55 )
( 0.5 0.5 )
( 0.6 0.4 ))
(( 0.5 0.5 )
( 0.75 0.25 )
( 0.89 0.11 ))
(( 0.79 0.21 )
( 0.85 0.15 )
( 0.9 0.1 )))
((( 0.45 0.55 )
( 0.48 0.52 )
( 0.5 0.5 ))
(( 0.48 0.52 )
( 0.5 0.5 )
( 0.6 0.4 ))
(( 0.55 0.45 )
( 0.62 0.38 )
( 0.65 0.35 ))
(( 0.8 0.2 )
( 0.85 0.15 )
( 0.92 0.08 )))
((( 0.5 0.5 )
( 0.55 0.45 )
( 0.6 0.4 ))
(( 0.55 0.45 )
( 0.6 0.4 )
( 0.65 0.35 ))
(( 0.63 0.37 )
( 0.75 0.25 )
( 0.85 0.15 ))
(( 0.85 0.15 )
( 0.93 0.07 )
( 0.99 0.01 ))))));
}

potential (identity_spoofing | link_clicked suspsuspitious_mail authentication likelihood_of_attack)
{
 data = ((((( 0.12 0.88 )
( 0.25 0.75 )
( 0.37 0.63 ))
(( 0.22 0.78 )
( 0.35 0.65 )
( 0.45 0.55 )))
((( 0.22 0.78 )
( 0.35 0.65 )
( 0.47 0.53 ))
(( 0.32 0.68 )
( 0.45 0.55 )
( 0.55 0.45 ))))
(((( 0.34 0.66 )
( 0.47 0.53 )
( 0.59 0.41 ))
(( 0.44 0.56 )
( 0.59 0.41 )
( 0.73 0.27 )))
((( 0.45 0.55 )
( 0.6 0.4 )
( 0.73 0.27 ))
(( 0.6 0.4 )
( 0.73 0.27 )
( 0.86 0.14 )))));
}

potential (pharming | vaidation link_clicked typical_severity likelihood_of_attack)
{
 data = ((((( 0.16 0.84 )
( 0.25 0.75 )
( 0.45 0.55 ))
(( 0.25 0.75 )
( 0.45 0.55 )
( 0.65 0.35 ))
(( 0.45 0.55 )
( 0.7 0.3 )
( 0.75 0.25 ))
(( 0.45 0.55 )
( 0.7 0.3 )
( 0.8 0.2 )))
((( 0.2 0.8 )
( 0.3 0.7 )
( 0.5 0.5 ))
(( 0.3 0.7 )
( 0.5 0.5 )
( 0.75 0.25 ))
(( 0.5 0.5 )
( 0.75 0.25 )
( 0.85 0.15 ))
(( 0.55 0.45 )
( 0.8 0.2 )
( 0.9 0.1 ))))
(((( 0.2 0.8 )
( 0.3 0.7 )
( 0.5 0.5 ))
(( 0.3 0.7 )
( 0.5 0.5 )
( 0.74 0.26 ))
(( 0.5 0.5 )
( 0.75 0.25 )
( 0.85 0.15 ))
(( 0.55 0.45 )
( 0.8 0.2 )
( 0.89 0.11 )))
((( 0.3 0.7 )
( 0.4 0.6 )
( 0.6 0.4 ))
(( 0.4 0.6 )
( 0.55 0.45 )
( 0.85 0.15 ))
(( 0.6 0.4 )
( 0.85 0.15 )
( 0.9 0.1 ))
(( 0.65 0.35 )
( 0.88 0.12 )
( 0.98 0.02 )))));
}

potential (phishing | link_clicked download_free_content suspsuspitious_mail typical_severity likelihood_of_attack)
{
 data = (((((( 0.08 0.92 )
( 0.14 0.86 )
( 0.3 0.7 ))
(( 0.14 0.86 )
( 0.15 0.85 )
( 0.58 0.42 ))
(( 0.15 0.85 )
( 0.2 0.8 )
( 0.5 0.5 ))
(( 0.3 0.7 )
( 0.4 0.6 )
( 0.6 0.4 )))
((( 0.25 0.75 )
( 0.3 0.7 )
( 0.6 0.4 ))
(( 0.3 0.7 )
( 0.35 0.65 )
( 0.7 0.3 ))
(( 0.2 0.8 )
( 0.25 0.75 )
( 0.75 0.25 ))
(( 0.4 0.6 )
( 0.45 0.55 )
( 0.8 0.2 ))))
(((( 0.15 0.85 )
( 0.2 0.8 )
( 0.5 0.5 ))
(( 0.3 0.7 )
( 0.5 0.5 )
( 0.63 0.37 ))
(( 0.28 0.72 )
( 0.48 0.52 )
( 0.65 0.35 ))
(( 0.45 0.55 )
( 0.75 0.25 )
( 0.8 0.2 )))
((( 0.2 0.8 )
( 0.35 0.65 )
( 0.6 0.4 ))
(( 0.32 0.68 )
( 0.5 0.5 )
( 0.8 0.2 ))
(( 0.5 0.5 )
( 0.51 0.49 )
( 0.9 0.1 ))
(( 0.56 0.44 )
( 0.8 0.2 )
( 0.99 0.01 )))))
((((( 0.14 0.86 )
( 0.17 0.83 )
( 0.42 0.58 ))
(( 0.17 0.83 )
( 0.22 0.78 )
( 0.54 0.46 ))
(( 0.15 0.85 )
( 0.2 0.8 )
( 0.6 0.4 ))
(( 0.2 0.8 )
( 0.5 0.5 )
( 0.87 0.13 )))
((( 0.2 0.8 )
( 0.22 0.78 )
( 0.62 0.38 ))
(( 0.25 0.75 )
( 0.5 0.5 )
( 0.75 0.25 ))
(( 0.2 0.8 )
( 0.29 0.71 )
( 0.82 0.18 ))
(( 0.42 0.58 )
( 0.5 0.5 )
( 0.9 0.1 ))))
(((( 0.2 0.8 )
( 0.25 0.75 )
( 0.6 0.4 ))
(( 0.35 0.65 )
( 0.55 0.45 )
( 0.63 0.37 ))
(( 0.28 0.72 )
( 0.54 0.46 )
( 0.65 0.35 ))
(( 0.51 0.49 )
( 0.75 0.25 )
( 0.8 0.2 )))
((( 0.23 0.77 )
( 0.25 0.75 )
( 0.6 0.4 ))
(( 0.3 0.7 )
( 0.5 0.5 )
( 0.8 0.2 ))
(( 0.55 0.45 )
( 0.7 0.3 )
( 0.9 0.1 ))
(( 0.65 0.35 )
( 0.8 0.2 )
( 0.99 0.01 ))))));
}

potential (dns_rebinding | authorization authentication typical_severity likelihood_of_attack)
{
 data = ((((( 0.2 0.8 )
( 0.35 0.65 )
( 0.55 0.45 ))
(( 0.35 0.65 )
( 0.45 0.55 )
( 0.65 0.35 ))
(( 0.45 0.55 )
( 0.65 0.35 )
( 0.7 0.3 ))
(( 0.6 0.4 )
( 0.65 0.35 )
( 0.67 0.33 )))
((( 0.4 0.6 )
( 0.45 0.55 )
( 0.5 0.5 ))
(( 0.45 0.55 )
( 0.5 0.5 )
( 0.55 0.45 ))
(( 0.5 0.5 )
( 0.55 0.45 )
( 0.6 0.4 ))
(( 0.56 0.44 )
( 0.6 0.4 )
( 0.75 0.25 ))))
(((( 0.3 0.7 )
( 0.35 0.65 )
( 0.4 0.6 ))
(( 0.35 0.65 )
( 0.45 0.55 )
( 0.55 0.45 ))
(( 0.45 0.55 )
( 0.5 0.5 )
( 0.55 0.45 ))
(( 0.55 0.45 )
( 0.57 0.43 )
( 0.62 0.38 )))
((( 0.35 0.65 )
( 0.45 0.55 )
( 0.5 0.5 ))
(( 0.5 0.5 )
( 0.55 0.45 )
( 0.6 0.4 ))
(( 0.49 0.51 )
( 0.62 0.38 )
( 0.82 0.18 ))
(( 0.65 0.35 )
( 0.7 0.3 )
( 0.85 0.15 ))))
(((( 0.35 0.65 )
( 0.4 0.6 )
( 0.45 0.55 ))
(( 0.4 0.6 )
( 0.5 0.5 )
( 0.6 0.4 ))
(( 0.5 0.5 )
( 0.55 0.45 )
( 0.6 0.4 ))
(( 0.57 0.43 )
( 0.6 0.4 )
( 0.65 0.35 )))
((( 0.4 0.6 )
( 0.5 0.5 )
( 0.55 0.45 ))
(( 0.55 0.45 )
( 0.65 0.35 )
( 0.7 0.3 ))
(( 0.6 0.4 )
( 0.65 0.35 )
( 0.85 0.15 ))
(( 0.7 0.3 )
( 0.75 0.25 )
( 0.95 0.05 )))));
}

potential (token_impersonaation | authorization authentication typical_severity likelihood_of_attack)
{
 data = ((((( 0.25 0.75 )
( 0.3 0.7 )
( 0.4 0.6 ))
(( 0.35 0.65 )
( 0.45 0.55 )
( 0.5 0.5 ))
(( 0.45 0.55 )
( 0.5 0.5 )
( 0.6 0.4 ))
(( 0.5 0.5 )
( 0.7 0.3 )
( 0.8 0.2 )))
((( 0.3 0.7 )
( 0.35 0.65 )
( 0.45 0.55 ))
(( 0.4 0.6 )
( 0.5 0.5 )
( 0.55 0.45 ))
(( 0.5 0.5 )
( 0.55 0.45 )
( 0.6 0.4 ))
(( 0.7 0.3 )
( 0.8 0.2 )
( 0.85 0.15 ))))
(((( 0.35 0.65 )
( 0.4 0.6 )
( 0.45 0.55 ))
(( 0.4 0.6 )
( 0.45 0.55 )
( 0.5 0.5 ))
(( 0.45 0.55 )
( 0.5 0.5 )
( 0.67 0.33 ))
(( 0.7 0.3 )
( 0.77 0.23 )
( 0.85 0.15 )))
((( 0.32 0.68 )
( 0.45 0.55 )
( 0.55 0.45 ))
(( 0.45 0.55 )
( 0.55 0.45 )
( 0.6 0.4 ))
(( 0.55 0.45 )
( 0.6 0.4 )
( 0.65 0.35 ))
(( 0.75 0.25 )
( 0.85 0.15 )
( 0.9 0.1 ))))
(((( 0.4 0.6 )
( 0.45 0.55 )
( 0.5 0.5 ))
(( 0.45 0.55 )
( 0.5 0.5 )
( 0.55 0.45 ))
(( 0.5 0.5 )
( 0.55 0.45 )
( 0.6 0.4 ))
(( 0.72 0.28 )
( 0.75 0.25 )
( 0.86 0.14 )))
((( 0.35 0.65 )
( 0.48 0.52 )
( 0.58 0.42 ))
(( 0.5 0.5 )
( 0.56 0.44 )
( 0.65 0.35 ))
(( 0.56 0.44 )
( 0.65 0.35 )
( 0.7 0.3 ))
(( 0.7 0.3 )
( 0.88 0.12 )
( 0.95 0.05 )))));
}

potential (terrestrial_jamming | typical_severity likelihood_of_attack)
{
 data = ((( 0.2 0.8 )
( 0.3 0.7 )
( 0.4 0.6 ))
(( 0.35 0.65 )
( 0.45 0.55 )
( 0.55 0.45 ))
(( 0.5 0.5 )
( 0.6 0.4 )
( 0.7 0.3 ))
(( 0.65 0.35 )
( 0.8 0.2 )
( 0.9 0.1 )));
}

potential (resource_location_spoofing | likelihood_of_attack server_version)
{
 data = ((( 0.2 0.8 )
( 0.3 0.7 )
( 0.4 0.6 ))
(( 0.35 0.65 )
( 0.45 0.55 )
( 0.55 0.45 ))
(( 0.5 0.5 )
( 0.65 0.35 )
( 0.8 0.2 )));
}

potential (action_spoofing | link_clicked authentication skills_required typical_severity likelihood_of_attack)
{
 data = (((((( 0.3 0.7 )
( 0.35 0.65 )
( 0.4 0.6 ))
(( 0.35 0.65 )
( 0.4 0.6 )
( 0.45 0.55 ))
(( 0.4 0.6 )
( 0.45 0.55 )
( 0.5 0.5 ))
(( 0.42 0.58 )
( 0.47 0.53 )
( 0.52 0.48 )))
((( 0.25 0.75 )
( 0.3 0.7 )
( 0.35 0.65 ))
(( 0.3 0.7 )
( 0.35 0.65 )
( 0.4 0.6 ))
(( 0.35 0.65 )
( 0.4 0.6 )
( 0.45 0.55 ))
(( 0.38 0.62 )
( 0.43 0.57 )
( 0.48 0.52 )))
((( 0.2 0.8 )
( 0.25 0.75 )
( 0.3 0.7 ))
(( 0.25 0.75 )
( 0.3 0.7 )
( 0.35 0.65 ))
(( 0.3 0.7 )
( 0.35 0.65 )
( 0.4 0.6 ))
(( 0.34 0.66 )
( 0.39 0.61 )
( 0.44 0.56 ))))
(((( 0.3 0.7 )
( 0.35 0.65 )
( 0.4 0.6 ))
(( 0.35 0.65 )
( 0.4 0.6 )
( 0.45 0.55 ))
(( 0.4 0.6 )
( 0.45 0.55 )
( 0.5 0.5 ))
(( 0.42 0.58 )
( 0.47 0.53 )
( 0.52 0.48 )))
((( 0.3 0.7 )
( 0.35 0.65 )
( 0.4 0.6 ))
(( 0.35 0.65 )
( 0.4 0.6 )
( 0.45 0.55 ))
(( 0.4 0.6 )
( 0.45 0.55 )
( 0.5 0.5 ))
(( 0.42 0.58 )
( 0.47 0.53 )
( 0.52 0.48 )))
((( 0.25 0.75 )
( 0.3 0.7 )
( 0.35 0.65 ))
(( 0.3 0.7 )
( 0.35 0.65 )
( 0.4 0.6 ))
(( 0.35 0.65 )
( 0.4 0.6 )
( 0.45 0.55 ))
(( 0.38 0.62 )
( 0.43 0.57 )
( 0.48 0.52 )))))
((((( 0.35 0.65 )
( 0.4 0.6 )
( 0.45 0.55 ))
(( 0.4 0.6 )
( 0.45 0.55 )
( 0.5 0.5 ))
(( 0.45 0.55 )
( 0.4 0.6 )
( 0.55 0.45 ))
(( 0.46 0.54 )
( 0.51 0.49 )
( 0.56 0.44 )))
((( 0.3 0.7 )
( 0.35 0.65 )
( 0.4 0.6 ))
(( 0.35 0.65 )
( 0.4 0.6 )
( 0.45 0.55 ))
(( 0.4 0.6 )
( 0.45 0.55 )
( 0.5 0.5 ))
(( 0.42 0.58 )
( 0.47 0.53 )
( 0.52 0.48 )))
((( 0.25 0.75 )
( 0.3 0.7 )
( 0.35 0.65 ))
(( 0.3 0.7 )
( 0.35 0.65 )
( 0.4 0.6 ))
(( 0.35 0.65 )
( 0.4 0.6 )
( 0.45 0.55 ))
(( 0.38 0.62 )
( 0.43 0.57 )
( 0.48 0.52 ))))
(((( 0.35 0.65 )
( 0.4 0.6 )
( 0.45 0.55 ))
(( 0.4 0.6 )
( 0.45 0.55 )
( 0.5 0.5 ))
(( 0.45 0.55 )
( 0.5 0.5 )
( 0.55 0.45 ))
(( 0.46 0.54 )
( 0.51 0.49 )
( 0.56 0.44 )))
((( 0.35 0.65 )
( 0.4 0.6 )
( 0.45 0.55 ))
(( 0.4 0.6 )
( 0.45 0.55 )
( 0.5 0.5 ))
(( 0.45 0.55 )
( 0.5 0.5 )
( 0.55 0.45 ))
(( 0.48 0.52 )
( 0.53 0.47 )
( 0.57 0.43 )))
((( 0.3 0.7 )
( 0.35 0.65 )
( 0.4 0.6 ))
(( 0.35 0.65 )
( 0.4 0.6 )
( 0.45 0.55 ))
(( 0.4 0.6 )
( 0.45 0.55 )
( 0.5 0.5 ))
(( 0.43 0.57 )
( 0.48 0.52 )
( 0.53 0.47 ))))));
}

potential (clickjacking | authorization link_clicked skills_required)
{
 data = (((( 0.42 0.58 )
( 0.32 0.68 )
( 0.22 0.78 ))
(( 0.52 0.48 )
( 0.62 0.38 )
( 0.72 0.28 )))
((( 0.57 0.43 )
( 0.47 0.53 )
( 0.37 0.63 ))
(( 0.67 0.33 )
( 0.77 0.23 )
( 0.87 0.13 )))
((( 0.67 0.33 )
( 0.57 0.43 )
( 0.47 0.53 ))
(( 0.77 0.23 )
( 0.84 0.16 )
( 0.92 0.08 ))));
}

potential (task_impersonation | authorization authentication typical_severity likelihood_of_attack)
{
 data = ((((( 0.03 0.97 )
( 0.15 0.85 )
( 0.28 0.72 ))
(( 0.13 0.87 )
( 0.25 0.75 )
( 0.38 0.62 ))
(( 0.23 0.77 )
( 0.35 0.65 )
( 0.48 0.52 ))
(( 0.33 0.67 )
( 0.43 0.57 )
( 0.55 0.45 )))
((( 0.15 0.85 )
( 0.25 0.75 )
( 0.38 0.62 ))
(( 0.23 0.77 )
( 0.35 0.65 )
( 0.48 0.52 ))
(( 0.33 0.67 )
( 0.45 0.55 )
( 0.58 0.42 ))
(( 0.38 0.62 )
( 0.48 0.52 )
( 0.6 0.4 ))))
(((( 0.16 0.84 )
( 0.26 0.74 )
( 0.39 0.61 ))
(( 0.24 0.76 )
( 0.36 0.64 )
( 0.49 0.51 ))
(( 0.34 0.66 )
( 0.46 0.54 )
( 0.59 0.41 ))
(( 0.44 0.56 )
( 0.54 0.46 )
( 0.66 0.34 )))
((( 0.26 0.74 )
( 0.36 0.64 )
( 0.49 0.51 ))
(( 0.34 0.66 )
( 0.46 0.54 )
( 0.59 0.41 ))
(( 0.44 0.56 )
( 0.56 0.44 )
( 0.69 0.31 ))
(( 0.49 0.51 )
( 0.59 0.41 )
( 0.75 0.25 ))))
(((( 0.26 0.74 )
( 0.36 0.64 )
( 0.49 0.51 ))
(( 0.34 0.66 )
( 0.46 0.54 )
( 0.59 0.41 ))
(( 0.44 0.56 )
( 0.56 0.44 )
( 0.69 0.31 ))
(( 0.54 0.46 )
( 0.64 0.36 )
( 0.76 0.24 )))
((( 0.36 0.64 )
( 0.46 0.54 )
( 0.59 0.41 ))
(( 0.44 0.56 )
( 0.56 0.44 )
( 0.69 0.31 ))
(( 0.54 0.46 )
( 0.66 0.34 )
( 0.79 0.21 ))
(( 0.59 0.41 )
( 0.72 0.28 )
( 0.89 0.11 )))));
}

potential (software_integrity_attack | server_version vaidation typical_severity)
{
 data = (((( 0.1 0.9 )
( 0.2 0.8 )
( 0.25 0.75 )
( 0.3 0.7 ))
(( 0.2 0.8 )
( 0.3 0.7 )
( 0.35 0.65 )
( 0.4 0.6 )))
((( 0.3 0.7 )
( 0.4 0.6 )
( 0.45 0.55 )
( 0.5 0.5 ))
(( 0.4 0.6 )
( 0.5 0.5 )
( 0.55 0.45 )
( 0.6 0.4 )))
((( 0.5 0.5 )
( 0.6 0.4 )
( 0.65 0.35 )
( 0.7 0.3 ))
(( 0.6 0.4 )
( 0.7 0.3 )
( 0.75 0.25 )
( 0.8 0.2 ))));
}

potential (malicius_human_behavior | suspsuspitious_mail typical_severity likelihood_of_attack)
{
 data = (((( 0.05 0.95 )
( 0.15 0.85 )
( 0.25 0.75 ))
(( 0.15 0.85 )
( 0.25 0.75 )
( 0.35 0.65 ))
(( 0.25 0.75 )
( 0.35 0.65 )
( 0.45 0.55 ))
(( 0.35 0.65 )
( 0.45 0.55 )
( 0.55 0.45 )))
((( 0.25 0.75 )
( 0.35 0.65 )
( 0.45 0.55 ))
(( 0.35 0.65 )
( 0.45 0.55 )
( 0.55 0.45 ))
(( 0.45 0.55 )
( 0.55 0.45 )
( 0.65 0.35 ))
(( 0.55 0.45 )
( 0.65 0.35 )
( 0.75 0.25 ))));
}

potential (influence_perception | authentication vaidation likelihood_of_attack)
{
 data = (((( 0.12 0.88 )
( 0.2 0.8 )
( 0.32 0.68 ))
(( 0.22 0.78 )
( 0.3 0.7 )
( 0.42 0.58 )))
((( 0.32 0.68 )
( 0.4 0.6 )
( 0.52 0.48 ))
(( 0.42 0.58 )
( 0.5 0.5 )
( 0.62 0.38 ))));
}

potential (route_disabiling | server_version link_clicked typical_severity likelihood_of_attack)
{
 data = ((((( 0.08 0.92 )
( 0.15 0.85 )
( 0.24 0.76 ))
(( 0.18 0.82 )
( 0.25 0.75 )
( 0.34 0.66 ))
(( 0.28 0.72 )
( 0.35 0.65 )
( 0.44 0.56 ))
(( 0.38 0.62 )
( 0.45 0.55 )
( 0.54 0.46 )))
((( 0.18 0.82 )
( 0.25 0.75 )
( 0.34 0.66 ))
(( 0.28 0.72 )
( 0.35 0.65 )
( 0.44 0.56 ))
(( 0.38 0.62 )
( 0.45 0.55 )
( 0.54 0.46 ))
(( 0.48 0.52 )
( 0.55 0.45 )
( 0.64 0.36 ))))
(((( 0.28 0.72 )
( 0.35 0.65 )
( 0.34 0.66 ))
(( 0.38 0.62 )
( 0.45 0.55 )
( 0.54 0.46 ))
(( 0.48 0.52 )
( 0.55 0.45 )
( 0.64 0.36 ))
(( 0.58 0.42 )
( 0.65 0.35 )
( 0.74 0.26 )))
((( 0.38 0.62 )
( 0.45 0.55 )
( 0.54 0.46 ))
(( 0.48 0.52 )
( 0.55 0.45 )
( 0.64 0.36 ))
(( 0.58 0.42 )
( 0.65 0.35 )
( 0.74 0.26 ))
(( 0.68 0.32 )
( 0.75 0.25 )
( 0.84 0.16 ))))
(((( 0.38 0.62 )
( 0.45 0.55 )
( 0.44 0.56 ))
(( 0.28 0.72 )
( 0.55 0.45 )
( 0.64 0.36 ))
(( 0.58 0.42 )
( 0.65 0.35 )
( 0.74 0.26 ))
(( 0.68 0.32 )
( 0.75 0.25 )
( 0.84 0.16 )))
((( 0.48 0.52 )
( 0.55 0.45 )
( 0.64 0.36 ))
(( 0.58 0.42 )
( 0.65 0.35 )
( 0.74 0.26 ))
(( 0.68 0.32 )
( 0.75 0.25 )
( 0.84 0.16 ))
(( 0.78 0.22 )
( 0.85 0.15 )
( 0.94 0.06 )))));
}

potential (blockage | server_version likelihood_of_attack typical_severity)
{
 data = (((( 0.11 0.89 )
( 0.23 0.77 )
( 0.31 0.69 )
( 0.38 0.62 ))
(( 0.21 0.79 )
( 0.33 0.67 )
( 0.41 0.59 )
( 0.48 0.52 ))
(( 0.31 0.69 )
( 0.53 0.47 )
( 0.51 0.49 )
( 0.58 0.42 )))
((( 0.31 0.69 )
( 0.43 0.57 )
( 0.51 0.49 )
( 0.58 0.42 ))
(( 0.41 0.59 )
( 0.53 0.47 )
( 0.61 0.39 )
( 0.68 0.32 ))
(( 0.51 0.49 )
( 0.73 0.27 )
( 0.71 0.29 )
( 0.78 0.22 )))
((( 0.6666667 0.33333334 )
( 0.6666667 0.33333334 )
( 0.6666667 0.33333334 )
( 0.6666667 0.33333334 ))
(( 0.6666667 0.33333334 )
( 0.6666667 0.33333334 )
( 0.6666667 0.33333334 )
( 0.6666667 0.33333334 ))
(( 0.6666667 0.33333334 )
( 0.6666667 0.33333334 )
( 0.6666667 0.33333334 )
( 0.6666667 0.33333334 ))));
}

potential (pretexting | authentication password_policy likelihood_of_attack skills_required typical_severity)
{
 data = (((((( 0.225 0.775 )
( 0.275 0.725 )
( 0.325 0.67499995 )
( 0.375 0.625 ))
(( 0.17500001 0.82500005 )
( 0.225 0.775 )
( 0.275 0.725 )
( 0.325 0.67499995 ))
(( 0.125 0.875 )
( 0.17500001 0.82500005 )
( 0.225 0.775 )
( 0.275 0.725 )))
((( 0.275 0.725 )
( 0.325 0.67499995 )
( 0.375 0.625 )
( 0.425 0.57500005 ))
(( 0.225 0.775 )
( 0.275 0.725 )
( 0.325 0.67499995 )
( 0.375 0.625 ))
(( 0.17500001 0.82500005 )
( 0.225 0.775 )
( 0.275 0.725 )
( 0.325 0.67499995 )))
((( 0.325 0.67499995 )
( 0.375 0.625 )
( 0.425 0.57500005 )
( 0.475 0.525 ))
(( 0.275 0.725 )
( 0.325 0.67499995 )
( 0.375 0.625 )
( 0.425 0.57500005 ))
(( 0.2 0.8 )
( 0.25 0.75 )
( 0.3 0.7 )
( 0.35 0.65 ))))
(((( 0.25 0.75 )
( 0.3 0.7 )
( 0.35 0.65 )
( 0.4 0.6 ))
(( 0.2 0.8 )
( 0.25 0.75 )
( 0.3 0.7 )
( 0.35 0.65 ))
(( 0.15 0.85 )
( 0.2 0.8 )
( 0.25 0.75 )
( 0.3 0.7 )))
((( 0.3 0.7 )
( 0.35 0.65 )
( 0.4 0.6 )
( 0.45 0.55 ))
(( 0.25 0.75 )
( 0.3 0.7 )
( 0.35 0.65 )
( 0.4 0.6 ))
(( 0.2 0.8 )
( 0.25 0.75 )
( 0.3 0.7 )
( 0.35 0.65 )))
((( 0.35 0.65 )
( 0.4 0.6 )
( 0.45 0.55 )
( 0.5 0.5 ))
(( 0.3 0.7 )
( 0.35 0.65 )
( 0.4 0.6 )
( 0.45 0.55 ))
(( 0.25 0.75 )
( 0.3 0.7 )
( 0.35 0.65 )
( 0.4 0.6 ))))
(((( 0.3 0.7 )
( 0.35 0.65 )
( 0.4 0.6 )
( 0.45 0.55 ))
(( 0.25 0.75 )
( 0.3 0.7 )
( 0.35 0.65 )
( 0.4 0.6 ))
(( 0.2 0.8 )
( 0.25 0.75 )
( 0.3 0.7 )
( 0.35 0.65 )))
((( 0.35 0.65 )
( 0.4 0.6 )
( 0.45 0.55 )
( 0.5 0.5 ))
(( 0.3 0.7 )
( 0.35 0.65 )
( 0.4 0.6 )
( 0.45 0.55 ))
(( 0.25 0.75 )
( 0.3 0.7 )
( 0.35 0.65 )
( 0.4 0.6 )))
((( 0.4 0.6 )
( 0.45 0.55 )
( 0.5 0.5 )
( 0.55 0.45 ))
(( 0.35 0.65 )
( 0.4 0.6 )
( 0.45 0.55 )
( 0.5 0.5 ))
(( 0.3 0.7 )
( 0.35 0.65 )
( 0.4 0.6 )
( 0.45 0.55 )))))
((((( 0.25 0.75 )
( 0.3 0.7 )
( 0.35 0.65 )
( 0.4 0.6 ))
(( 0.2 0.8 )
( 0.25 0.75 )
( 0.3 0.7 )
( 0.35 0.65 ))
(( 0.15 0.85 )
( 0.2 0.8 )
( 0.25 0.75 )
( 0.3 0.7 )))
((( 0.3 0.7 )
( 0.35 0.65 )
( 0.4 0.6 )
( 0.45 0.55 ))
(( 0.25 0.75 )
( 0.3 0.7 )
( 0.35 0.65 )
( 0.4 0.6 ))
(( 0.2 0.8 )
( 0.25 0.75 )
( 0.3 0.7 )
( 0.35 0.65 )))
((( 0.35 0.65 )
( 0.4 0.6 )
( 0.45 0.55 )
( 0.5 0.5 ))
(( 0.3 0.7 )
( 0.35 0.65 )
( 0.4 0.6 )
( 0.45 0.55 ))
(( 0.25 0.75 )
( 0.3 0.7 )
( 0.35 0.65 )
( 0.4 0.6 ))))
(((( 0.3 0.7 )
( 0.35 0.65 )
( 0.4 0.6 )
( 0.45 0.55 ))
(( 0.25 0.75 )
( 0.3 0.7 )
( 0.35 0.65 )
( 0.4 0.6 ))
(( 0.2 0.8 )
( 0.25 0.75 )
( 0.3 0.7 )
( 0.35 0.65 )))
((( 0.35 0.65 )
( 0.4 0.6 )
( 0.45 0.55 )
( 0.5 0.5 ))
(( 0.3 0.7 )
( 0.35 0.65 )
( 0.4 0.6 )
( 0.45 0.55 ))
(( 0.25 0.75 )
( 0.3 0.7 )
( 0.35 0.65 )
( 0.4 0.6 )))
((( 0.4 0.6 )
( 0.45 0.55 )
( 0.5 0.5 )
( 0.55 0.45 ))
(( 0.35 0.65 )
( 0.4 0.6 )
( 0.45 0.55 )
( 0.5 0.5 ))
(( 0.3 0.7 )
( 0.35 0.65 )
( 0.4 0.6 )
( 0.45 0.55 ))))
(((( 0.35 0.65 )
( 0.4 0.6 )
( 0.45 0.55 )
( 0.5 0.5 ))
(( 0.3 0.7 )
( 0.35 0.65 )
( 0.4 0.6 )
( 0.45 0.55 ))
(( 0.25 0.75 )
( 0.3 0.7 )
( 0.35 0.65 )
( 0.4 0.6 )))
((( 0.4 0.6 )
( 0.45 0.55 )
( 0.5 0.5 )
( 0.55 0.45 ))
(( 0.35 0.65 )
( 0.4 0.6 )
( 0.45 0.55 )
( 0.5 0.5 ))
(( 0.3 0.7 )
( 0.35 0.65 )
( 0.4 0.6 )
( 0.45 0.55 )))
((( 0.45 0.55 )
( 0.5 0.5 )
( 0.55 0.45 )
( 0.6 0.4 ))
(( 0.4 0.6 )
( 0.45 0.55 )
( 0.5 0.5 )
( 0.55 0.45 ))
(( 0.35 0.65 )
( 0.4 0.6 )
( 0.45 0.55 )
( 0.5 0.5 ))))));
}

potential (authentication)
{
 data = ( 0.2 0.8 );
}

potential (password_policy)
{
 data = ( 0.2 0.3 0.5 );
}

potential (authorization)
{
 data = ( 0.2 0.3 0.5 );
}

potential (server_version)
{
 data = ( 0.3 0.3 0.4 );
}

potential (vaidation)
{
 data = ( 0.3 0.7 );
}

potential (suspsuspitious_mail)
{
 data = ( 0.7 0.3 );
}

potential (link_clicked)
{
 data = ( 0.2 0.8 );
}

potential (download_free_content)
{
 data = ( 0.2 0.8 );
}

potential (skills_required)
{
 data = ( 0.1 0.3 0.6 );
}

